<?xml version="1.0"?>
<opencv_storage>
<cascade>
  <stageType>BOOST</stageType>
  <featureType>HAAR</featureType>
  <height>24</height>
  <width>24</width>
  <stageParams>
    <boostType>GAB</boostType>
    <minHitRate>9.9900001287460327e-01</minHitRate>
    <maxFalseAlarm>4.0000000596046448e-01</maxFalseAlarm>
    <weightTrimRate>9.4999999999999996e-01</weightTrimRate>
    <maxDepth>1</maxDepth>
    <maxWeakCount>100</maxWeakCount></stageParams>
  <featureParams>
    <maxCatCount>0</maxCatCount>
    <featSize>1</featSize>
    <mode>BASIC</mode></featureParams>
  <stageNum>13</stageNum>
  <stages>
    <!-- stage 0 -->
    <_>
      <maxWeakCount>3</maxWeakCount>
      <stageThreshold>-1.0244650840759277e+00</stageThreshold>
      <weakClassifiers>
        <_>
          <internalNodes>
            0 -1 15 -1.7922274768352509e-01</internalNodes>
          <leafValues>
            -8.9175260066986084e-01 6.8867921829223633e-01</leafValues></_>
        <_>
          <internalNodes>
            0 -1 131 -4.0047697722911835e-02</internalNodes>
          <leafValues>
            -6.5633016824722290e-01 7.1413892507553101e-01</leafValues></_>
        <_>
          <internalNodes>
            0 -1 90 -8.4719210863113403e-03</internalNodes>
          <leafValues>
            5.2361762523651123e-01 -7.3140436410903931e-01</leafValues></_></weakClassifiers></_>
    <!-- stage 1 -->
    <_>
      <maxWeakCount>8</maxWeakCount>
      <stageThreshold>-1.2361398935317993e+00</stageThreshold>
      <weakClassifiers>
        <_>
          <internalNodes>
            0 -1 19 4.5724976807832718e-02</internalNodes>
          <leafValues>
            -7.0089286565780640e-01 7.5000000000000000e-01</leafValues></_>
        <_>
          <internalNodes>
            0 -1 116 -6.2009591609239578e-02</internalNodes>
          <leafValues>
            7.0591121912002563e-01 -4.6788111329078674e-01</leafValues></_>
        <_>
          <internalNodes>
            0 -1 69 -2.1754670888185501e-02</internalNodes>
          <leafValues>
            -9.5259809494018555e-01 2.6723703742027283e-01</leafValues></_>
        <_>
          <internalNodes>
            0 -1 3 6.4029484987258911e-02</internalNodes>
          <leafValues>
            -2.5834420323371887e-01 8.9194232225418091e-01</leafValues></_>
        <_>
          <internalNodes>
            0 -1 5 -2.9157008975744247e-02</internalNodes>
          <leafValues>
            7.6797753572463989e-01 -3.1961053609848022e-01</leafValues></_>
        <_>
          <internalNodes>
            0 -1 52 3.5668447613716125e-02</internalNodes>
          <leafValues>
            2.8802278637886047e-01 -9.0617436170578003e-01</leafValues></_>
        <_>
          <internalNodes>
            0 -1 38 1.7278161831200123e-03</internalNodes>
          <leafValues>
            -5.9689640998840332e-01 3.2175710797309875e-01</leafValues></_>
        <_>
          <internalNodes>
            0 -1 16 7.6708598062396049e-03</internalNodes>
          <leafValues>
            -3.5803765058517456e-01 5.5222541093826294e-01</leafValues></_></weakClassifiers></_>
    <!-- stage 2 -->
    <_>
      <maxWeakCount>9</maxWeakCount>
      <stageThreshold>-1.0257813930511475e+00</stageThreshold>
      <weakClassifiers>
        <_>
          <internalNodes>
            0 -1 60 6.5705895423889160e-02</internalNodes>
          <leafValues>
            -6.6976743936538696e-01 5.1764708757400513e-01</leafValues></_>
        <_>
          <internalNodes>
            0 -1 142 -1.0418766736984253e-01</internalNodes>
          <leafValues>
            -7.0859497785568237e-01 2.4938933551311493e-01</leafValues></_>
        <_>
          <internalNodes>
            0 -1 140 -9.2415541410446167e-02</internalNodes>
          <leafValues>
            7.6690196990966797e-01 -2.5079494714736938e-01</leafValues></_>
        <_>
          <internalNodes>
            0 -1 41 -7.7930805273354053e-03</internalNodes>
          <leafValues>
            3.1641137599945068e-01 -5.8739393949508667e-01</leafValues></_>
        <_>
          <internalNodes>
            0 -1 151 1.3384625315666199e-02</internalNodes>
          <leafValues>
            -3.4964510798454285e-01 5.2818745374679565e-01</leafValues></_>
        <_>
          <internalNodes>
            0 -1 4 3.5497285425662994e-02</internalNodes>
          <leafValues>
            -1.8605127930641174e-01 6.8171304464340210e-01</leafValues></_>
        <_>
          <internalNodes>
            0 -1 64 -7.1046939119696617e-03</internalNodes>
          <leafValues>
            -8.3438521623611450e-01 2.1868242323398590e-01</leafValues></_>
        <_>
          <internalNodes>
            0 -1 35 1.0845908895134926e-02</internalNodes>
          <leafValues>
            -3.5777831077575684e-01 4.3921861052513123e-01</leafValues></_>
        <_>
          <internalNodes>
            0 -1 86 -3.3880355767905712e-03</internalNodes>
          <leafValues>
            -8.4927237033843994e-01 1.6475990414619446e-01</leafValues></_></weakClassifiers></_>
    <!-- stage 3 -->
    <_>
      <maxWeakCount>12</maxWeakCount>
      <stageThreshold>-1.1167955398559570e+00</stageThreshold>
      <weakClassifiers>
        <_>
          <internalNodes>
            0 -1 110 -4.4693380594253540e-02</internalNodes>
          <leafValues>
            6.9105690717697144e-01 -5.9748429059982300e-01</leafValues></_>
        <_>
          <internalNodes>
            0 -1 12 1.3484665751457214e-01</internalNodes>
          <leafValues>
            -3.4580752253532410e-01 5.8162343502044678e-01</leafValues></_>
        <_>
          <internalNodes>
            0 -1 31 8.9161442592740059e-03</internalNodes>
          <leafValues>
            -3.0987262725830078e-01 6.0148948431015015e-01</leafValues></_>
        <_>
          <internalNodes>
            0 -1 79 4.1189929470419884e-03</internalNodes>
          <leafValues>
            -2.5159701704978943e-01 5.6205070018768311e-01</leafValues></_>
        <_>
          <internalNodes>
            0 -1 107 -6.7796218208968639e-03</internalNodes>
          <leafValues>
            2.0608541369438171e-01 -7.2901362180709839e-01</leafValues></_>
        <_>
          <internalNodes>
            0 -1 124 3.7892966065555811e-04</internalNodes>
          <leafValues>
            -3.9337664842605591e-01 4.0225985646247864e-01</leafValues></_>
        <_>
          <internalNodes>
            0 -1 65 -3.2927021384239197e-03</internalNodes>
          <leafValues>
            4.7973078489303589e-01 -2.7454930543899536e-01</leafValues></_>
        <_>
          <internalNodes>
            0 -1 33 1.1243414133787155e-02</internalNodes>
          <leafValues>
            -1.5917569398880005e-01 7.5029104948043823e-01</leafValues></_>
        <_>
          <internalNodes>
            0 -1 2 -7.0097789168357849e-02</internalNodes>
          <leafValues>
            8.7335991859436035e-01 -1.4841276407241821e-01</leafValues></_>
        <_>
          <internalNodes>
            0 -1 139 -1.0840204358100891e-01</internalNodes>
          <leafValues>
            6.9252526760101318e-01 -2.1305932104587555e-01</leafValues></_>
        <_>
          <internalNodes>
            0 -1 67 -4.5516882091760635e-03</internalNodes>
          <leafValues>
            4.3599128723144531e-01 -3.5209929943084717e-01</leafValues></_>
        <_>
          <internalNodes>
            0 -1 100 -7.1062799543142319e-03</internalNodes>
          <leafValues>
            1.8018285930156708e-01 -7.7089679241180420e-01</leafValues></_></weakClassifiers></_>
    <!-- stage 4 -->
    <_>
      <maxWeakCount>12</maxWeakCount>
      <stageThreshold>-1.1149636507034302e+00</stageThreshold>
      <weakClassifiers>
        <_>
          <internalNodes>
            0 -1 103 -7.1968644857406616e-02</internalNodes>
          <leafValues>
            4.9640288949012756e-01 -5.8351409435272217e-01</leafValues></_>
        <_>
          <internalNodes>
            0 -1 134 4.2349994182586670e-03</internalNodes>
          <leafValues>
            -4.1898334026336670e-01 3.3147409558296204e-01</leafValues></_>
        <_>
          <internalNodes>
            0 -1 43 1.0076568461954594e-02</internalNodes>
          <leafValues>
            -2.9525458812713623e-01 4.6672856807708740e-01</leafValues></_>
        <_>
          <internalNodes>
            0 -1 57 -1.0057062609121203e-03</internalNodes>
          <leafValues>
            2.1847581863403320e-01 -5.3094649314880371e-01</leafValues></_>
        <_>
          <internalNodes>
            0 -1 119 7.8108569141477346e-04</internalNodes>
          <leafValues>
            1.6754508018493652e-01 -8.4919387102127075e-01</leafValues></_>
        <_>
          <internalNodes>
            0 -1 32 -1.9144341349601746e-02</internalNodes>
          <leafValues>
            6.8920481204986572e-01 -2.1990935504436493e-01</leafValues></_>
        <_>
          <internalNodes>
            0 -1 20 -5.6594643741846085e-02</internalNodes>
          <leafValues>
            -1.4181821048259735e-01 6.7834049463272095e-01</leafValues></_>
        <_>
          <internalNodes>
            0 -1 34 -1.2401126325130463e-02</internalNodes>
          <leafValues>
            6.5154165029525757e-01 -1.7635320127010345e-01</leafValues></_>
        <_>
          <internalNodes>
            0 -1 137 8.4687694907188416e-03</internalNodes>
          <leafValues>
            1.3596569001674652e-01 -8.6839032173156738e-01</leafValues></_>
        <_>
          <internalNodes>
            0 -1 47 6.9981306791305542e-02</internalNodes>
          <leafValues>
            -2.9655873775482178e-01 4.0319395065307617e-01</leafValues></_>
        <_>
          <internalNodes>
            0 -1 74 -2.3021183907985687e-02</internalNodes>
          <leafValues>
            6.9714772701263428e-01 -2.0318257808685303e-01</leafValues></_>
        <_>
          <internalNodes>
            0 -1 146 -4.2699299752712250e-02</internalNodes>
          <leafValues>
            8.1230664253234863e-01 -1.2153475731611252e-01</leafValues></_></weakClassifiers></_>
    <!-- stage 5 -->
    <_>
      <maxWeakCount>11</maxWeakCount>
      <stageThreshold>-1.1700706481933594e+00</stageThreshold>
      <weakClassifiers>
        <_>
          <internalNodes>
            0 -1 1 4.3095245957374573e-02</internalNodes>
          <leafValues>
            -6.0283690690994263e-01 3.1073445081710815e-01</leafValues></_>
        <_>
          <internalNodes>
            0 -1 56 9.6361162140965462e-03</internalNodes>
          <leafValues>
            -3.7784400582313538e-01 3.5867023468017578e-01</leafValues></_>
        <_>
          <internalNodes>
            0 -1 23 5.6405916810035706e-02</internalNodes>
          <leafValues>
            -2.3258011043071747e-01 5.2198690176010132e-01</leafValues></_>
        <_>
          <internalNodes>
            0 -1 70 3.1140305101871490e-02</internalNodes>
          <leafValues>
            1.3876852393150330e-01 -9.1464042663574219e-01</leafValues></_>
        <_>
          <internalNodes>
            0 -1 96 1.3691732659935951e-02</internalNodes>
          <leafValues>
            8.7994612753391266e-02 -9.4737493991851807e-01</leafValues></_>
        <_>
          <internalNodes>
            0 -1 135 2.0155641250312328e-03</internalNodes>
          <leafValues>
            -3.2942673563957214e-01 3.4808102250099182e-01</leafValues></_>
        <_>
          <internalNodes>
            0 -1 76 -1.8715064972639084e-02</internalNodes>
          <leafValues>
            -6.9999802112579346e-01 2.1218530833721161e-01</leafValues></_>
        <_>
          <internalNodes>
            0 -1 126 8.4255414549261332e-04</internalNodes>
          <leafValues>
            -3.0435460805892944e-01 3.7787607312202454e-01</leafValues></_>
        <_>
          <internalNodes>
            0 -1 108 -3.4953147172927856e-02</internalNodes>
          <leafValues>
            -8.2590913772583008e-01 1.4873929321765900e-01</leafValues></_>
        <_>
          <internalNodes>
            0 -1 145 -3.2635457813739777e-02</internalNodes>
          <leafValues>
            3.9655351638793945e-01 -3.4023466706275940e-01</leafValues></_>
        <_>
          <internalNodes>
            0 -1 148 8.4244110621511936e-04</internalNodes>
          <leafValues>
            -2.5271201133728027e-01 4.7605043649673462e-01</leafValues></_></weakClassifiers></_>
    <!-- stage 6 -->
    <_>
      <maxWeakCount>13</maxWeakCount>
      <stageThreshold>-1.4257048368453979e+00</stageThreshold>
      <weakClassifiers>
        <_>
          <internalNodes>
            0 -1 48 8.7057679891586304e-02</internalNodes>
          <leafValues>
            -5.2301257848739624e-01 4.0983605384826660e-01</leafValues></_>
        <_>
          <internalNodes>
            0 -1 159 -2.0562231075018644e-03</internalNodes>
          <leafValues>
            -2.4399425089359283e-01 4.9288317561149597e-01</leafValues></_>
        <_>
          <internalNodes>
            0 -1 55 6.3073914498090744e-03</internalNodes>
          <leafValues>
            -2.4871701002120972e-01 5.2871209383010864e-01</leafValues></_>
        <_>
          <internalNodes>
            0 -1 150 2.6909112930297852e-02</internalNodes>
          <leafValues>
            -1.4728234708309174e-01 6.0139310359954834e-01</leafValues></_>
        <_>
          <internalNodes>
            0 -1 98 -1.6245320439338684e-01</internalNodes>
          <leafValues>
            -8.2099837064743042e-01 1.3401509821414948e-01</leafValues></_>
        <_>
          <internalNodes>
            0 -1 66 -2.2735435049980879e-03</internalNodes>
          <leafValues>
            4.5185491442680359e-01 -2.3189948499202728e-01</leafValues></_>
        <_>
          <internalNodes>
            0 -1 50 5.0633386708796024e-03</internalNodes>
          <leafValues>
            -1.7977584898471832e-01 5.8930993080139160e-01</leafValues></_>
        <_>
          <internalNodes>
            0 -1 42 -6.0094031505286694e-03</internalNodes>
          <leafValues>
            2.4916736781597137e-01 -4.7986334562301636e-01</leafValues></_>
        <_>
          <internalNodes>
            0 -1 30 4.5498894178308547e-04</internalNodes>
          <leafValues>
            -3.1178426742553711e-01 4.0174746513366699e-01</leafValues></_>
        <_>
          <internalNodes>
            0 -1 75 1.1550267226994038e-03</internalNodes>
          <leafValues>
            -3.4632155299186707e-01 3.6148253083229065e-01</leafValues></_>
        <_>
          <internalNodes>
            0 -1 154 -4.8008799552917480e-02</internalNodes>
          <leafValues>
            8.6321532726287842e-01 -1.3362300395965576e-01</leafValues></_>
        <_>
          <internalNodes>
            0 -1 8 -3.9960138499736786e-02</internalNodes>
          <leafValues>
            7.5542354583740234e-01 -1.2053914368152618e-01</leafValues></_>
        <_>
          <internalNodes>
            0 -1 6 3.5914137959480286e-02</internalNodes>
          <leafValues>
            -1.9790057837963104e-01 6.0641837120056152e-01</leafValues></_></weakClassifiers></_>
    <!-- stage 7 -->
    <_>
      <maxWeakCount>17</maxWeakCount>
      <stageThreshold>-1.2372006177902222e+00</stageThreshold>
      <weakClassifiers>
        <_>
          <internalNodes>
            0 -1 111 -4.2844206094741821e-02</internalNodes>
          <leafValues>
            3.7815126776695251e-01 -5.0935548543930054e-01</leafValues></_>
        <_>
          <internalNodes>
            0 -1 25 3.8886912167072296e-02</internalNodes>
          <leafValues>
            -2.1674224734306335e-01 5.0198543071746826e-01</leafValues></_>
        <_>
          <internalNodes>
            0 -1 136 1.6554468311369419e-03</internalNodes>
          <leafValues>
            -2.3869125545024872e-01 3.9320003986358643e-01</leafValues></_>
        <_>
          <internalNodes>
            0 -1 95 1.5718037029728293e-03</internalNodes>
          <leafValues>
            1.4011238515377045e-01 -7.4183177947998047e-01</leafValues></_>
        <_>
          <internalNodes>
            0 -1 80 1.3159090303815901e-04</internalNodes>
          <leafValues>
            -3.3065873384475708e-01 2.8120240569114685e-01</leafValues></_>
        <_>
          <internalNodes>
            0 -1 27 -4.6322159469127655e-03</internalNodes>
          <leafValues>
            5.6642264127731323e-01 -1.7751523852348328e-01</leafValues></_>
        <_>
          <internalNodes>
            0 -1 58 -2.2219253703951836e-02</internalNodes>
          <leafValues>
            -1.7748691141605377e-01 5.6208556890487671e-01</leafValues></_>
        <_>
          <internalNodes>
            0 -1 122 1.2772324262186885e-03</internalNodes>
          <leafValues>
            1.7514020204544067e-01 -5.8975213766098022e-01</leafValues></_>
        <_>
          <internalNodes>
            0 -1 156 2.0706601208075881e-04</internalNodes>
          <leafValues>
            1.5417951345443726e-01 -5.4234629869461060e-01</leafValues></_>
        <_>
          <internalNodes>
            0 -1 152 -2.0911027677357197e-03</internalNodes>
          <leafValues>
            4.9341234564781189e-01 -2.0083564519882202e-01</leafValues></_>
        <_>
          <internalNodes>
            0 -1 21 8.6615830659866333e-03</internalNodes>
          <leafValues>
            -2.3285497725009918e-01 4.1520693898200989e-01</leafValues></_>
        <_>
          <internalNodes>
            0 -1 155 3.6277055740356445e-02</internalNodes>
          <leafValues>
            -1.3170023262500763e-01 6.8220233917236328e-01</leafValues></_>
        <_>
          <internalNodes>
            0 -1 24 -5.9613813646137714e-03</internalNodes>
          <leafValues>
            4.1669631004333496e-01 -2.3696739971637726e-01</leafValues></_>
        <_>
          <internalNodes>
            0 -1 105 -5.5415095994248986e-04</internalNodes>
          <leafValues>
            -6.4320671558380127e-01 1.7307224869728088e-01</leafValues></_>
        <_>
          <internalNodes>
            0 -1 144 -1.3946626335382462e-02</internalNodes>
          <leafValues>
            4.2303308844566345e-01 -2.4817202985286713e-01</leafValues></_>
        <_>
          <internalNodes>
            0 -1 29 1.0906668752431870e-01</internalNodes>
          <leafValues>
            1.1490013450384140e-01 -8.9561152458190918e-01</leafValues></_>
        <_>
          <internalNodes>
            0 -1 109 1.7966993153095245e-02</internalNodes>
          <leafValues>
            7.4483744800090790e-02 -9.3803375959396362e-01</leafValues></_></weakClassifiers></_>
    <!-- stage 8 -->
    <_>
      <maxWeakCount>16</maxWeakCount>
      <stageThreshold>-1.2068681716918945e+00</stageThreshold>
      <weakClassifiers>
        <_>
          <internalNodes>
            0 -1 28 5.8816142380237579e-02</internalNodes>
          <leafValues>
            -5.1914894580841064e-01 3.3846154808998108e-01</leafValues></_>
        <_>
          <internalNodes>
            0 -1 63 -9.8263788968324661e-03</internalNodes>
          <leafValues>
            3.0629229545593262e-01 -3.4579461812973022e-01</leafValues></_>
        <_>
          <internalNodes>
            0 -1 138 -1.7984665930271149e-02</internalNodes>
          <leafValues>
            -5.8963733911514282e-01 1.7762669920921326e-01</leafValues></_>
        <_>
          <internalNodes>
            0 -1 130 -1.5105970669537783e-03</internalNodes>
          <leafValues>
            4.7702053189277649e-01 -1.9655743241310120e-01</leafValues></_>
        <_>
          <internalNodes>
            0 -1 104 2.2645494900643826e-03</internalNodes>
          <leafValues>
            1.0389599949121475e-01 -8.2771611213684082e-01</leafValues></_>
        <_>
          <internalNodes>
            0 -1 51 1.4125509187579155e-02</internalNodes>
          <leafValues>
            1.1472091078758240e-01 -8.1944584846496582e-01</leafValues></_>
        <_>
          <internalNodes>
            0 -1 141 4.0036235004663467e-03</internalNodes>
          <leafValues>
            -2.9053908586502075e-01 3.7018176913261414e-01</leafValues></_>
        <_>
          <internalNodes>
            0 -1 77 -4.3716328218579292e-03</internalNodes>
          <leafValues>
            5.7101756334304810e-01 -1.6553528606891632e-01</leafValues></_>
        <_>
          <internalNodes>
            0 -1 84 3.0298169702291489e-02</internalNodes>
          <leafValues>
            -1.8945968151092529e-01 5.0775736570358276e-01</leafValues></_>
        <_>
          <internalNodes>
            0 -1 162 -1.0845704236999154e-03</internalNodes>
          <leafValues>
            -8.5867345333099365e-01 1.1371307820081711e-01</leafValues></_>
        <_>
          <internalNodes>
            0 -1 123 5.1890313625335693e-03</internalNodes>
          <leafValues>
            -1.7978383600711823e-01 6.2356364727020264e-01</leafValues></_>
        <_>
          <internalNodes>
            0 -1 17 -1.8333720508962870e-03</internalNodes>
          <leafValues>
            -1.6514381766319275e-01 5.8717262744903564e-01</leafValues></_>
        <_>
          <internalNodes>
            0 -1 13 -9.5888983923941851e-04</internalNodes>
          <leafValues>
            4.5620879530906677e-01 -2.2202037274837494e-01</leafValues></_>
        <_>
          <internalNodes>
            0 -1 9 6.4369477331638336e-03</internalNodes>
          <leafValues>
            -1.8509137630462646e-01 5.3720736503601074e-01</leafValues></_>
        <_>
          <internalNodes>
            0 -1 117 1.7176225082948804e-03</internalNodes>
          <leafValues>
            1.1344929784536362e-01 -9.6849799156188965e-01</leafValues></_>
        <_>
          <internalNodes>
            0 -1 82 -4.5790746808052063e-03</internalNodes>
          <leafValues>
            8.3256505429744720e-02 -8.0113852024078369e-01</leafValues></_></weakClassifiers></_>
    <!-- stage 9 -->
    <_>
      <maxWeakCount>15</maxWeakCount>
      <stageThreshold>-8.1858354806900024e-01</stageThreshold>
      <weakClassifiers>
        <_>
          <internalNodes>
            0 -1 133 -1.9279383122920990e-02</internalNodes>
          <leafValues>
            5.1282051950693130e-02 -5.7923495769500732e-01</leafValues></_>
        <_>
          <internalNodes>
            0 -1 128 3.0764942057430744e-03</internalNodes>
          <leafValues>
            -3.3021360635757446e-01 3.0241176486015320e-01</leafValues></_>
        <_>
          <internalNodes>
            0 -1 14 -7.3487190529704094e-03</internalNodes>
          <leafValues>
            -8.0148583650588989e-01 1.0549093037843704e-01</leafValues></_>
        <_>
          <internalNodes>
            0 -1 36 -5.0845053046941757e-03</internalNodes>
          <leafValues>
            3.3912870287895203e-01 -2.8889545798301697e-01</leafValues></_>
        <_>
          <internalNodes>
            0 -1 121 1.2169510591775179e-03</internalNodes>
          <leafValues>
            -2.2839540243148804e-01 4.0680462121963501e-01</leafValues></_>
        <_>
          <internalNodes>
            0 -1 157 -8.9602069929242134e-03</internalNodes>
          <leafValues>
            -1.7110717296600342e-01 5.2883571386337280e-01</leafValues></_>
        <_>
          <internalNodes>
            0 -1 106 -4.0471702814102173e-02</internalNodes>
          <leafValues>
            -9.4055801630020142e-01 1.2736292183399200e-01</leafValues></_>
        <_>
          <internalNodes>
            0 -1 115 -7.4632233008742332e-03</internalNodes>
          <leafValues>
            3.2124912738800049e-01 -3.2006368041038513e-01</leafValues></_>
        <_>
          <internalNodes>
            0 -1 26 -7.5887300074100494e-02</internalNodes>
          <leafValues>
            7.6365959644317627e-01 -1.2693826854228973e-01</leafValues></_>
        <_>
          <internalNodes>
            0 -1 44 -5.0203297287225723e-03</internalNodes>
          <leafValues>
            6.3859784603118896e-01 -1.2513062357902527e-01</leafValues></_>
        <_>
          <internalNodes>
            0 -1 125 -5.1084063015878201e-03</internalNodes>
          <leafValues>
            -7.8676688671112061e-01 1.2630267441272736e-01</leafValues></_>
        <_>
          <internalNodes>
            0 -1 161 -2.2128193813841790e-04</internalNodes>
          <leafValues>
            -5.2214747667312622e-01 1.4356696605682373e-01</leafValues></_>
        <_>
          <internalNodes>
            0 -1 101 2.0946520380675793e-03</internalNodes>
          <leafValues>
            1.2017626315355301e-01 -6.9622027873992920e-01</leafValues></_>
        <_>
          <internalNodes>
            0 -1 118 2.4237006902694702e-02</internalNodes>
          <leafValues>
            -1.5880756080150604e-01 6.8998605012893677e-01</leafValues></_>
        <_>
          <internalNodes>
            0 -1 85 -3.2818624749779701e-03</internalNodes>
          <leafValues>
            4.4890636205673218e-01 -1.9749501347541809e-01</leafValues></_></weakClassifiers></_>
    <!-- stage 10 -->
    <_>
      <maxWeakCount>17</maxWeakCount>
      <stageThreshold>-1.1779208183288574e+00</stageThreshold>
      <weakClassifiers>
        <_>
          <internalNodes>
            0 -1 127 -4.1820611804723740e-02</internalNodes>
          <leafValues>
            1.4285714924335480e-01 -5.1851850748062134e-01</leafValues></_>
        <_>
          <internalNodes>
            0 -1 72 2.2046470548957586e-03</internalNodes>
          <leafValues>
            -2.6999002695083618e-01 3.3142405748367310e-01</leafValues></_>
        <_>
          <internalNodes>
            0 -1 132 3.5341815091669559e-03</internalNodes>
          <leafValues>
            1.2694844603538513e-01 -6.4643698930740356e-01</leafValues></_>
        <_>
          <internalNodes>
            0 -1 61 -2.3274706676602364e-02</internalNodes>
          <leafValues>
            -7.7899801731109619e-01 1.0393899679183960e-01</leafValues></_>
        <_>
          <internalNodes>
            0 -1 0 5.1348146051168442e-02</internalNodes>
          <leafValues>
            -1.6298483312129974e-01 5.0250250101089478e-01</leafValues></_>
        <_>
          <internalNodes>
            0 -1 7 -9.1486340388655663e-03</internalNodes>
          <leafValues>
            4.7884264588356018e-01 -2.0608045160770416e-01</leafValues></_>
        <_>
          <internalNodes>
            0 -1 91 -2.4933706969022751e-02</internalNodes>
          <leafValues>
            -9.0739732980728149e-01 1.0426098108291626e-01</leafValues></_>
        <_>
          <internalNodes>
            0 -1 68 1.3761802110821009e-03</internalNodes>
          <leafValues>
            8.6296185851097107e-02 -8.0955135822296143e-01</leafValues></_>
        <_>
          <internalNodes>
            0 -1 18 -2.2895731031894684e-02</internalNodes>
          <leafValues>
            -8.5807913541793823e-01 8.6550936102867126e-02</leafValues></_>
        <_>
          <internalNodes>
            0 -1 37 -1.2371095828711987e-02</internalNodes>
          <leafValues>
            2.7991962432861328e-01 -3.0673867464065552e-01</leafValues></_>
        <_>
          <internalNodes>
            0 -1 54 1.3189869932830334e-02</internalNodes>
          <leafValues>
            1.0330967605113983e-01 -7.9529553651809692e-01</leafValues></_>
        <_>
          <internalNodes>
            0 -1 39 2.0866613835096359e-02</internalNodes>
          <leafValues>
            8.6981154978275299e-02 -8.8988405466079712e-01</leafValues></_>
        <_>
          <internalNodes>
            0 -1 83 2.6060889940708876e-03</internalNodes>
          <leafValues>
            8.5659697651863098e-02 -7.4984103441238403e-01</leafValues></_>
        <_>
          <internalNodes>
            0 -1 102 6.9960858672857285e-04</internalNodes>
          <leafValues>
            -2.1907626092433929e-01 4.7741517424583435e-01</leafValues></_>
        <_>
          <internalNodes>
            0 -1 73 -5.4330630227923393e-03</internalNodes>
          <leafValues>
            4.2048826813697815e-01 -2.2677753865718842e-01</leafValues></_>
        <_>
          <internalNodes>
            0 -1 113 -4.4165089726448059e-02</internalNodes>
          <leafValues>
            -7.8668415546417236e-01 1.1370133608579636e-01</leafValues></_>
        <_>
          <internalNodes>
            0 -1 71 -5.7219723239541054e-03</internalNodes>
          <leafValues>
            6.7577528953552246e-01 -1.6540195047855377e-01</leafValues></_></weakClassifiers></_>
    <!-- stage 11 -->
    <_>
      <maxWeakCount>15</maxWeakCount>
      <stageThreshold>-9.2686015367507935e-01</stageThreshold>
      <weakClassifiers>
        <_>
          <internalNodes>
            0 -1 10 8.0030709505081177e-02</internalNodes>
          <leafValues>
            -5.3246754407882690e-01 2.3255813866853714e-02</leafValues></_>
        <_>
          <internalNodes>
            0 -1 78 2.9802718199789524e-03</internalNodes>
          <leafValues>
            -2.5953400135040283e-01 2.6769968867301941e-01</leafValues></_>
        <_>
          <internalNodes>
            0 -1 88 5.0349449738860130e-03</internalNodes>
          <leafValues>
            -2.9679572582244873e-01 2.6370918750762939e-01</leafValues></_>
        <_>
          <internalNodes>
            0 -1 87 7.9331023152917624e-04</internalNodes>
          <leafValues>
            9.5365725457668304e-02 -7.6427298784255981e-01</leafValues></_>
        <_>
          <internalNodes>
            0 -1 129 -4.5409880112856627e-04</internalNodes>
          <leafValues>
            3.2121303677558899e-01 -2.2757077217102051e-01</leafValues></_>
        <_>
          <internalNodes>
            0 -1 158 -8.0117322504520416e-03</internalNodes>
          <leafValues>
            -1.5685960650444031e-01 4.8150900006294250e-01</leafValues></_>
        <_>
          <internalNodes>
            0 -1 147 3.7978817708790302e-03</internalNodes>
          <leafValues>
            -1.5500991046428680e-01 5.7647711038589478e-01</leafValues></_>
        <_>
          <internalNodes>
            0 -1 92 -2.7064902242273092e-03</internalNodes>
          <leafValues>
            1.0657922923564911e-01 -7.6014482975006104e-01</leafValues></_>
        <_>
          <internalNodes>
            0 -1 93 8.4230871871113777e-03</internalNodes>
          <leafValues>
            -2.3969212174415588e-01 3.6016270518302917e-01</leafValues></_>
        <_>
          <internalNodes>
            0 -1 149 -9.7006140276789665e-03</internalNodes>
          <leafValues>
            5.7088732719421387e-01 -1.7811915278434753e-01</leafValues></_>
        <_>
          <internalNodes>
            0 -1 45 6.5173640847206116e-02</internalNodes>
          <leafValues>
            -9.9207580089569092e-02 9.0085351467132568e-01</leafValues></_>
        <_>
          <internalNodes>
            0 -1 46 -2.5049723684787750e-02</internalNodes>
          <leafValues>
            -2.2313252091407776e-01 3.6367872357368469e-01</leafValues></_>
        <_>
          <internalNodes>
            0 -1 11 1.7164707183837891e-01</internalNodes>
          <leafValues>
            1.0338365286588669e-01 -8.8356554508209229e-01</leafValues></_>
        <_>
          <internalNodes>
            0 -1 153 4.9282694235444069e-03</internalNodes>
          <leafValues>
            -2.6319432258605957e-01 3.5468310117721558e-01</leafValues></_>
        <_>
          <internalNodes>
            0 -1 22 2.6503227651119232e-02</internalNodes>
          <leafValues>
            -1.4144825935363770e-01 5.7143968343734741e-01</leafValues></_></weakClassifiers></_>
    <!-- stage 12 -->
    <_>
      <maxWeakCount>15</maxWeakCount>
      <stageThreshold>-9.8476320505142212e-01</stageThreshold>
      <weakClassifiers>
        <_>
          <internalNodes>
            0 -1 49 -1.0470401495695114e-02</internalNodes>
          <leafValues>
            -4.9662920832633972e-01 1.3548387587070465e-01</leafValues></_>
        <_>
          <internalNodes>
            0 -1 143 -6.9877477362751961e-03</internalNodes>
          <leafValues>
            3.6945345997810364e-01 -1.9811320304870605e-01</leafValues></_>
        <_>
          <internalNodes>
            0 -1 81 4.2281849309802055e-03</internalNodes>
          <leafValues>
            -2.1912828087806702e-01 3.3418062329292297e-01</leafValues></_>
        <_>
          <internalNodes>
            0 -1 114 2.2101770155131817e-03</internalNodes>
          <leafValues>
            -2.3996046185493469e-01 3.2066705822944641e-01</leafValues></_>
        <_>
          <internalNodes>
            0 -1 40 -1.2049838900566101e-02</internalNodes>
          <leafValues>
            -8.1023085117340088e-01 8.9640855789184570e-02</leafValues></_>
        <_>
          <internalNodes>
            0 -1 53 2.4907138198614120e-02</internalNodes>
          <leafValues>
            9.2139028012752533e-02 -8.8319259881973267e-01</leafValues></_>
        <_>
          <internalNodes>
            0 -1 120 -3.3836145885288715e-03</internalNodes>
          <leafValues>
            -7.1475499868392944e-01 1.0954948514699936e-01</leafValues></_>
        <_>
          <internalNodes>
            0 -1 112 7.9646655649412423e-05</internalNodes>
          <leafValues>
            -3.4901896119117737e-01 2.5497236847877502e-01</leafValues></_>
        <_>
          <internalNodes>
            0 -1 160 -4.4810958206653595e-04</internalNodes>
          <leafValues>
            -5.5777102708816528e-01 1.5028740465641022e-01</leafValues></_>
        <_>
          <internalNodes>
            0 -1 99 -1.2303038965910673e-03</internalNodes>
          <leafValues>
            3.2519835233688354e-01 -2.4786923825740814e-01</leafValues></_>
        <_>
          <internalNodes>
            0 -1 59 5.7248347438871861e-03</internalNodes>
          <leafValues>
            -1.2905544042587280e-01 6.3334387540817261e-01</leafValues></_>
        <_>
          <internalNodes>
            0 -1 89 -2.2096433676779270e-03</internalNodes>
          <leafValues>
            3.3132034540176392e-01 -2.4608892202377319e-01</leafValues></_>
        <_>
          <internalNodes>
            0 -1 94 -1.9148060819134116e-03</internalNodes>
          <leafValues>
            -7.2040039300918579e-01 1.2015810608863831e-01</leafValues></_>
        <_>
          <internalNodes>
            0 -1 62 9.5197166956495494e-05</internalNodes>
          <leafValues>
            -3.9014640450477600e-01 2.0865942537784576e-01</leafValues></_>
        <_>
          <internalNodes>
            0 -1 97 4.2904278961941600e-04</internalNodes>
          <leafValues>
            -1.8264271318912506e-01 4.7807440161705017e-01</leafValues></_></weakClassifiers></_></stages>
  <features>
    <_>
      <rects>
        <_>
          0 1 6 18 -1.</_>
        <_>
          3 1 3 18 2.</_></rects>
      <tilted>0</tilted></_>
    <_>
      <rects>
        <_>
          0 2 16 6 -1.</_>
        <_>
          0 2 8 3 2.</_>
        <_>
          8 5 8 3 2.</_></rects>
      <tilted>0</tilted></_>
    <_>
      <rects>
        <_>
          0 3 6 15 -1.</_>
        <_>
          3 3 3 15 2.</_></rects>
      <tilted>0</tilted></_>
    <_>
      <rects>
        <_>
          0 5 8 11 -1.</_>
        <_>
          4 5 4 11 2.</_></rects>
      <tilted>0</tilted></_>
    <_>
      <rects>
        <_>
          0 6 6 11 -1.</_>
        <_>
          3 6 3 11 2.</_></rects>
      <tilted>0</tilted></_>
    <_>
      <rects>
        <_>
          0 6 6 15 -1.</_>
        <_>
          3 6 3 15 2.</_></rects>
      <tilted>0</tilted></_>
    <_>
      <rects>
        <_>
          0 7 6 9 -1.</_>
        <_>
          3 7 3 9 2.</_></rects>
      <tilted>0</tilted></_>
    <_>
      <rects>
        <_>
          0 8 4 7 -1.</_>
        <_>
          2 8 2 7 2.</_></rects>
      <tilted>0</tilted></_>
    <_>
      <rects>
        <_>
          0 14 8 7 -1.</_>
        <_>
          4 14 4 7 2.</_></rects>
      <tilted>0</tilted></_>
    <_>
      <rects>
        <_>
          0 21 20 2 -1.</_>
        <_>
          0 22 20 1 2.</_></rects>
      <tilted>0</tilted></_>
    <_>
      <rects>
        <_>
          1 0 14 12 -1.</_>
        <_>
          1 0 7 6 2.</_>
        <_>
          8 6 7 6 2.</_></rects>
      <tilted>0</tilted></_>
    <_>
      <rects>
        <_>
          1 1 10 16 -1.</_>
        <_>
          1 9 10 8 2.</_></rects>
      <tilted>0</tilted></_>
    <_>
      <rects>
        <_>
          1 3 12 20 -1.</_>
        <_>
          7 3 6 20 2.</_></rects>
      <tilted>0</tilted></_>
    <_>
      <rects>
        <_>
          1 6 8 1 -1.</_>
        <_>
          5 6 4 1 2.</_></rects>
      <tilted>0</tilted></_>
    <_>
      <rects>
        <_>
          1 7 18 2 -1.</_>
        <_>
          1 7 9 1 2.</_>
        <_>
          10 8 9 1 2.</_></rects>
      <tilted>0</tilted></_>
    <_>
      <rects>
        <_>
          1 8 8 12 -1.</_>
        <_>
          1 12 8 4 2.</_></rects>
      <tilted>0</tilted></_>
    <_>
      <rects>
        <_>
          1 9 4 11 -1.</_>
        <_>
          3 9 2 11 2.</_></rects>
      <tilted>0</tilted></_>
    <_>
      <rects>
        <_>
          1 23 3 1 -1.</_>
        <_>
          2 23 1 1 2.</_></rects>
      <tilted>0</tilted></_>
    <_>
      <rects>
        <_>
          2 0 1 9 -1.</_>
        <_>
          2 3 1 3 2.</_></rects>
      <tilted>0</tilted></_>
    <_>
      <rects>
        <_>
          2 0 12 10 -1.</_>
        <_>
          2 0 6 5 2.</_>
        <_>
          8 5 6 5 2.</_></rects>
      <tilted>0</tilted></_>
    <_>
      <rects>
        <_>
          2 0 21 4 -1.</_>
        <_>
          9 0 7 4 2.</_></rects>
      <tilted>0</tilted></_>
    <_>
      <rects>
        <_>
          2 2 8 4 -1.</_>
        <_>
          2 2 4 2 2.</_>
        <_>
          6 4 4 2 2.</_></rects>
      <tilted>0</tilted></_>
    <_>
      <rects>
        <_>
          2 5 6 4 -1.</_>
        <_>
          5 5 3 4 2.</_></rects>
      <tilted>0</tilted></_>
    <_>
      <rects>
        <_>
          2 7 6 17 -1.</_>
        <_>
          5 7 3 17 2.</_></rects>
      <tilted>0</tilted></_>
    <_>
      <rects>
        <_>
          2 12 4 8 -1.</_>
        <_>
          2 12 2 4 2.</_>
        <_>
          4 16 2 4 2.</_></rects>
      <tilted>0</tilted></_>
    <_>
      <rects>
        <_>
          2 18 10 4 -1.</_>
        <_>
          7 18 5 4 2.</_></rects>
      <tilted>0</tilted></_>
    <_>
      <rects>
        <_>
          3 0 14 6 -1.</_>
        <_>
          3 3 14 3 2.</_></rects>
      <tilted>0</tilted></_>
    <_>
      <rects>
        <_>
          3 1 4 4 -1.</_>
        <_>
          3 1 2 2 2.</_>
        <_>
          5 3 2 2 2.</_></rects>
      <tilted>0</tilted></_>
    <_>
      <rects>
        <_>
          3 1 10 10 -1.</_>
        <_>
          3 1 5 5 2.</_>
        <_>
          8 6 5 5 2.</_></rects>
      <tilted>0</tilted></_>
    <_>
      <rects>
        <_>
          3 2 16 16 -1.</_>
        <_>
          3 2 8 8 2.</_>
        <_>
          11 10 8 8 2.</_></rects>
      <tilted>0</tilted></_>
    <_>
      <rects>
        <_>
          3 4 4 2 -1.</_>
        <_>
          3 4 2 1 2.</_>
        <_>
          5 5 2 1 2.</_></rects>
      <tilted>0</tilted></_>
    <_>
      <rects>
        <_>
          3 12 19 2 -1.</_>
        <_>
          3 13 19 1 2.</_></rects>
      <tilted>0</tilted></_>
    <_>
      <rects>
        <_>
          3 18 8 3 -1.</_>
        <_>
          7 18 4 3 2.</_></rects>
      <tilted>0</tilted></_>
    <_>
      <rects>
        <_>
          4 0 15 2 -1.</_>
        <_>
          4 1 15 1 2.</_></rects>
      <tilted>0</tilted></_>
    <_>
      <rects>
        <_>
          4 1 6 4 -1.</_>
        <_>
          4 3 6 2 2.</_></rects>
      <tilted>0</tilted></_>
    <_>
      <rects>
        <_>
          4 4 4 16 -1.</_>
        <_>
          6 4 2 16 2.</_></rects>
      <tilted>0</tilted></_>
    <_>
      <rects>
        <_>
          4 6 6 8 -1.</_>
        <_>
          4 6 3 4 2.</_>
        <_>
          7 10 3 4 2.</_></rects>
      <tilted>0</tilted></_>
    <_>
      <rects>
        <_>
          4 8 15 4 -1.</_>
        <_>
          4 10 15 2 2.</_></rects>
      <tilted>0</tilted></_>
    <_>
      <rects>
        <_>
          4 10 7 6 -1.</_>
        <_>
          4 13 7 3 2.</_></rects>
      <tilted>0</tilted></_>
    <_>
      <rects>
        <_>
          4 10 14 6 -1.</_>
        <_>
          4 10 7 3 2.</_>
        <_>
          11 13 7 3 2.</_></rects>
      <tilted>0</tilted></_>
    <_>
      <rects>
        <_>
          4 14 12 4 -1.</_>
        <_>
          4 14 6 2 2.</_>
        <_>
          10 16 6 2 2.</_></rects>
      <tilted>0</tilted></_>
    <_>
      <rects>
        <_>
          4 14 15 8 -1.</_>
        <_>
          4 18 15 4 2.</_></rects>
      <tilted>0</tilted></_>
    <_>
      <rects>
        <_>
          4 14 16 4 -1.</_>
        <_>
          4 16 16 2 2.</_></rects>
      <tilted>0</tilted></_>
    <_>
      <rects>
        <_>
          4 17 6 4 -1.</_>
        <_>
          7 17 3 4 2.</_></rects>
      <tilted>0</tilted></_>
    <_>
      <rects>
        <_>
          4 20 4 4 -1.</_>
        <_>
          4 20 2 2 2.</_>
        <_>
          6 22 2 2 2.</_></rects>
      <tilted>0</tilted></_>
    <_>
      <rects>
        <_>
          5 0 17 4 -1.</_>
        <_>
          5 2 17 2 2.</_></rects>
      <tilted>0</tilted></_>
    <_>
      <rects>
        <_>
          5 1 6 4 -1.</_>
        <_>
          7 1 2 4 2.</_></rects>
      <tilted>0</tilted></_>
    <_>
      <rects>
        <_>
          5 1 17 8 -1.</_>
        <_>
          5 5 17 4 2.</_></rects>
      <tilted>0</tilted></_>
    <_>
      <rects>
        <_>
          5 3 14 6 -1.</_>
        <_>
          5 6 14 3 2.</_></rects>
      <tilted>0</tilted></_>
    <_>
      <rects>
        <_>
          5 5 15 1 -1.</_>
        <_>
          10 5 5 1 2.</_></rects>
      <tilted>0</tilted></_>
    <_>
      <rects>
        <_>
          5 10 2 9 -1.</_>
        <_>
          6 10 1 9 2.</_></rects>
      <tilted>0</tilted></_>
    <_>
      <rects>
        <_>
          5 10 12 4 -1.</_>
        <_>
          5 10 6 2 2.</_>
        <_>
          11 12 6 2 2.</_></rects>
      <tilted>0</tilted></_>
    <_>
      <rects>
        <_>
          5 10 12 10 -1.</_>
        <_>
          5 15 12 5 2.</_></rects>
      <tilted>0</tilted></_>
    <_>
      <rects>
        <_>
          5 11 12 8 -1.</_>
        <_>
          5 11 6 4 2.</_>
        <_>
          11 15 6 4 2.</_></rects>
      <tilted>0</tilted></_>
    <_>
      <rects>
        <_>
          5 11 7 10 -1.</_>
        <_>
          5 16 7 5 2.</_></rects>
      <tilted>0</tilted></_>
    <_>
      <rects>
        <_>
          5 11 10 2 -1.</_>
        <_>
          5 12 10 1 2.</_></rects>
      <tilted>0</tilted></_>
    <_>
      <rects>
        <_>
          5 11 12 4 -1.</_>
        <_>
          5 13 12 2 2.</_></rects>
      <tilted>0</tilted></_>
    <_>
      <rects>
        <_>
          5 14 6 6 -1.</_>
        <_>
          5 17 6 3 2.</_></rects>
      <tilted>0</tilted></_>
    <_>
      <rects>
        <_>
          6 0 18 2 -1.</_>
        <_>
          12 0 6 2 2.</_></rects>
      <tilted>0</tilted></_>
    <_>
      <rects>
        <_>
          6 1 9 2 -1.</_>
        <_>
          6 2 9 1 2.</_></rects>
      <tilted>0</tilted></_>
    <_>
      <rects>
        <_>
          6 2 12 8 -1.</_>
        <_>
          6 6 12 4 2.</_></rects>
      <tilted>0</tilted></_>
    <_>
      <rects>
        <_>
          6 3 14 2 -1.</_>
        <_>
          13 3 7 2 2.</_></rects>
      <tilted>0</tilted></_>
    <_>
      <rects>
        <_>
          6 6 2 1 -1.</_>
        <_>
          7 6 1 1 2.</_></rects>
      <tilted>0</tilted></_>
    <_>
      <rects>
        <_>
          6 8 11 4 -1.</_>
        <_>
          6 10 11 2 2.</_></rects>
      <tilted>0</tilted></_>
    <_>
      <rects>
        <_>
          6 16 3 1 -1.</_>
        <_>
          7 16 1 1 2.</_></rects>
      <tilted>0</tilted></_>
    <_>
      <rects>
        <_>
          6 20 15 2 -1.</_>
        <_>
          6 21 15 1 2.</_></rects>
      <tilted>0</tilted></_>
    <_>
      <rects>
        <_>
          6 21 8 2 -1.</_>
        <_>
          6 21 4 1 2.</_>
        <_>
          10 22 4 1 2.</_></rects>
      <tilted>0</tilted></_>
    <_>
      <rects>
        <_>
          7 6 5 6 -1.</_>
        <_>
          7 9 5 3 2.</_></rects>
      <tilted>0</tilted></_>
    <_>
      <rects>
        <_>
          7 7 2 1 -1.</_>
        <_>
          8 7 1 1 2.</_></rects>
      <tilted>0</tilted></_>
    <_>
      <rects>
        <_>
          7 10 3 3 -1.</_>
        <_>
          8 10 1 3 2.</_></rects>
      <tilted>0</tilted></_>
    <_>
      <rects>
        <_>
          7 10 12 8 -1.</_>
        <_>
          7 10 6 4 2.</_>
        <_>
          13 14 6 4 2.</_></rects>
      <tilted>0</tilted></_>
    <_>
      <rects>
        <_>
          7 12 17 2 -1.</_>
        <_>
          7 13 17 1 2.</_></rects>
      <tilted>0</tilted></_>
    <_>
      <rects>
        <_>
          7 22 10 2 -1.</_>
        <_>
          7 23 10 1 2.</_></rects>
      <tilted>0</tilted></_>
    <_>
      <rects>
        <_>
          8 0 5 4 -1.</_>
        <_>
          8 2 5 2 2.</_></rects>
      <tilted>0</tilted></_>
    <_>
      <rects>
        <_>
          8 4 9 6 -1.</_>
        <_>
          8 7 9 3 2.</_></rects>
      <tilted>0</tilted></_>
    <_>
      <rects>
        <_>
          8 8 2 7 -1.</_>
        <_>
          9 8 1 7 2.</_></rects>
      <tilted>0</tilted></_>
    <_>
      <rects>
        <_>
          8 8 14 8 -1.</_>
        <_>
          8 8 7 4 2.</_>
        <_>
          15 12 7 4 2.</_></rects>
      <tilted>0</tilted></_>
    <_>
      <rects>
        <_>
          8 10 9 2 -1.</_>
        <_>
          8 11 9 1 2.</_></rects>
      <tilted>0</tilted></_>
    <_>
      <rects>
        <_>
          8 11 7 2 -1.</_>
        <_>
          8 12 7 1 2.</_></rects>
      <tilted>0</tilted></_>
    <_>
      <rects>
        <_>
          8 11 9 2 -1.</_>
        <_>
          8 12 9 1 2.</_></rects>
      <tilted>0</tilted></_>
    <_>
      <rects>
        <_>
          8 12 1 2 -1.</_>
        <_>
          8 13 1 1 2.</_></rects>
      <tilted>0</tilted></_>
    <_>
      <rects>
        <_>
          8 12 9 2 -1.</_>
        <_>
          8 13 9 1 2.</_></rects>
      <tilted>0</tilted></_>
    <_>
      <rects>
        <_>
          8 19 6 1 -1.</_>
        <_>
          10 19 2 1 2.</_></rects>
      <tilted>0</tilted></_>
    <_>
      <rects>
        <_>
          9 0 2 6 -1.</_>
        <_>
          10 0 1 6 2.</_></rects>
      <tilted>0</tilted></_>
    <_>
      <rects>
        <_>
          9 0 2 10 -1.</_>
        <_>
          9 5 2 5 2.</_></rects>
      <tilted>0</tilted></_>
    <_>
      <rects>
        <_>
          9 2 14 2 -1.</_>
        <_>
          9 2 7 1 2.</_>
        <_>
          16 3 7 1 2.</_></rects>
      <tilted>0</tilted></_>
    <_>
      <rects>
        <_>
          9 3 4 2 -1.</_>
        <_>
          11 3 2 2 2.</_></rects>
      <tilted>0</tilted></_>
    <_>
      <rects>
        <_>
          9 7 2 2 -1.</_>
        <_>
          9 7 1 1 2.</_>
        <_>
          10 8 1 1 2.</_></rects>
      <tilted>0</tilted></_>
    <_>
      <rects>
        <_>
          9 9 12 6 -1.</_>
        <_>
          9 9 6 3 2.</_>
        <_>
          15 12 6 3 2.</_></rects>
      <tilted>0</tilted></_>
    <_>
      <rects>
        <_>
          9 10 4 6 -1.</_>
        <_>
          9 10 2 3 2.</_>
        <_>
          11 13 2 3 2.</_></rects>
      <tilted>0</tilted></_>
    <_>
      <rects>
        <_>
          9 13 11 6 -1.</_>
        <_>
          9 16 11 3 2.</_></rects>
      <tilted>0</tilted></_>
    <_>
      <rects>
        <_>
          9 14 3 8 -1.</_>
        <_>
          9 18 3 4 2.</_></rects>
      <tilted>0</tilted></_>
    <_>
      <rects>
        <_>
          9 17 3 1 -1.</_>
        <_>
          10 17 1 1 2.</_></rects>
      <tilted>0</tilted></_>
    <_>
      <rects>
        <_>
          10 0 14 4 -1.</_>
        <_>
          10 0 7 2 2.</_>
        <_>
          17 2 7 2 2.</_></rects>
      <tilted>0</tilted></_>
    <_>
      <rects>
        <_>
          10 1 2 6 -1.</_>
        <_>
          10 1 1 3 2.</_>
        <_>
          11 4 1 3 2.</_></rects>
      <tilted>0</tilted></_>
    <_>
      <rects>
        <_>
          10 2 2 3 -1.</_>
        <_>
          11 2 1 3 2.</_></rects>
      <tilted>0</tilted></_>
    <_>
      <rects>
        <_>
          10 8 3 16 -1.</_>
        <_>
          10 16 3 8 2.</_></rects>
      <tilted>0</tilted></_>
    <_>
      <rects>
        <_>
          10 12 2 2 -1.</_>
        <_>
          10 12 1 1 2.</_>
        <_>
          11 13 1 1 2.</_></rects>
      <tilted>0</tilted></_>
    <_>
      <rects>
        <_>
          10 12 12 6 -1.</_>
        <_>
          14 12 4 6 2.</_></rects>
      <tilted>0</tilted></_>
    <_>
      <rects>
        <_>
          10 15 4 2 -1.</_>
        <_>
          10 16 4 1 2.</_></rects>
      <tilted>0</tilted></_>
    <_>
      <rects>
        <_>
          10 20 3 3 -1.</_>
        <_>
          11 20 1 3 2.</_></rects>
      <tilted>0</tilted></_>
    <_>
      <rects>
        <_>
          11 0 2 4 -1.</_>
        <_>
          12 0 1 4 2.</_></rects>
      <tilted>0</tilted></_>
    <_>
      <rects>
        <_>
          11 0 3 2 -1.</_>
        <_>
          11 1 3 1 2.</_></rects>
      <tilted>0</tilted></_>
    <_>
      <rects>
        <_>
          11 0 12 10 -1.</_>
        <_>
          11 0 6 5 2.</_>
        <_>
          17 5 6 5 2.</_></rects>
      <tilted>0</tilted></_>
    <_>
      <rects>
        <_>
          11 1 2 6 -1.</_>
        <_>
          11 1 1 3 2.</_>
        <_>
          12 4 1 3 2.</_></rects>
      <tilted>0</tilted></_>
    <_>
      <rects>
        <_>
          11 5 2 2 -1.</_>
        <_>
          11 5 1 1 2.</_>
        <_>
          12 6 1 1 2.</_></rects>
      <tilted>0</tilted></_>
    <_>
      <rects>
        <_>
          11 6 4 10 -1.</_>
        <_>
          11 11 4 5 2.</_></rects>
      <tilted>0</tilted></_>
    <_>
      <rects>
        <_>
          11 8 3 2 -1.</_>
        <_>
          12 8 1 2 2.</_></rects>
      <tilted>0</tilted></_>
    <_>
      <rects>
        <_>
          11 9 4 12 -1.</_>
        <_>
          11 15 4 6 2.</_></rects>
      <tilted>0</tilted></_>
    <_>
      <rects>
        <_>
          11 10 4 14 -1.</_>
        <_>
          11 17 4 7 2.</_></rects>
      <tilted>0</tilted></_>
    <_>
      <rects>
        <_>
          12 1 10 8 -1.</_>
        <_>
          12 1 5 4 2.</_>
        <_>
          17 5 5 4 2.</_></rects>
      <tilted>0</tilted></_>
    <_>
      <rects>
        <_>
          12 2 10 6 -1.</_>
        <_>
          12 2 5 3 2.</_>
        <_>
          17 5 5 3 2.</_></rects>
      <tilted>0</tilted></_>
    <_>
      <rects>
        <_>
          12 6 1 2 -1.</_>
        <_>
          12 7 1 1 2.</_></rects>
      <tilted>0</tilted></_>
    <_>
      <rects>
        <_>
          12 6 4 14 -1.</_>
        <_>
          12 13 4 7 2.</_></rects>
      <tilted>0</tilted></_>
    <_>
      <rects>
        <_>
          12 6 10 4 -1.</_>
        <_>
          12 6 5 2 2.</_>
        <_>
          17 8 5 2 2.</_></rects>
      <tilted>0</tilted></_>
    <_>
      <rects>
        <_>
          12 6 6 8 -1.</_>
        <_>
          12 10 6 4 2.</_></rects>
      <tilted>0</tilted></_>
    <_>
      <rects>
        <_>
          12 7 12 12 -1.</_>
        <_>
          18 7 6 12 2.</_></rects>
      <tilted>0</tilted></_>
    <_>
      <rects>
        <_>
          12 20 2 2 -1.</_>
        <_>
          13 20 1 2 2.</_></rects>
      <tilted>0</tilted></_>
    <_>
      <rects>
        <_>
          13 1 10 8 -1.</_>
        <_>
          13 1 5 4 2.</_>
        <_>
          18 5 5 4 2.</_></rects>
      <tilted>0</tilted></_>
    <_>
      <rects>
        <_>
          13 5 2 2 -1.</_>
        <_>
          13 5 1 1 2.</_>
        <_>
          14 6 1 1 2.</_></rects>
      <tilted>0</tilted></_>
    <_>
      <rects>
        <_>
          13 6 2 4 -1.</_>
        <_>
          14 6 1 4 2.</_></rects>
      <tilted>0</tilted></_>
    <_>
      <rects>
        <_>
          13 10 2 8 -1.</_>
        <_>
          13 10 1 4 2.</_>
        <_>
          14 14 1 4 2.</_></rects>
      <tilted>0</tilted></_>
    <_>
      <rects>
        <_>
          13 12 7 8 -1.</_>
        <_>
          13 16 7 4 2.</_></rects>
      <tilted>0</tilted></_>
    <_>
      <rects>
        <_>
          13 22 8 1 -1.</_>
        <_>
          17 22 4 1 2.</_></rects>
      <tilted>0</tilted></_>
    <_>
      <rects>
        <_>
          13 22 8 2 -1.</_>
        <_>
          13 23 8 1 2.</_></rects>
      <tilted>0</tilted></_>
    <_>
      <rects>
        <_>
          14 1 2 22 -1.</_>
        <_>
          14 1 1 11 2.</_>
        <_>
          15 12 1 11 2.</_></rects>
      <tilted>0</tilted></_>
    <_>
      <rects>
        <_>
          14 1 8 2 -1.</_>
        <_>
          14 1 4 1 2.</_>
        <_>
          18 2 4 1 2.</_></rects>
      <tilted>0</tilted></_>
    <_>
      <rects>
        <_>
          14 2 10 8 -1.</_>
        <_>
          14 2 5 4 2.</_>
        <_>
          19 6 5 4 2.</_></rects>
      <tilted>0</tilted></_>
    <_>
      <rects>
        <_>
          14 10 3 4 -1.</_>
        <_>
          14 12 3 2 2.</_></rects>
      <tilted>0</tilted></_>
    <_>
      <rects>
        <_>
          14 15 2 6 -1.</_>
        <_>
          15 15 1 6 2.</_></rects>
      <tilted>0</tilted></_>
    <_>
      <rects>
        <_>
          14 20 3 2 -1.</_>
        <_>
          14 21 3 1 2.</_></rects>
      <tilted>0</tilted></_>
    <_>
      <rects>
        <_>
          15 0 1 24 -1.</_>
        <_>
          15 8 1 8 2.</_></rects>
      <tilted>0</tilted></_>
    <_>
      <rects>
        <_>
          15 1 2 22 -1.</_>
        <_>
          16 1 1 22 2.</_></rects>
      <tilted>0</tilted></_>
    <_>
      <rects>
        <_>
          15 6 6 6 -1.</_>
        <_>
          18 6 3 6 2.</_></rects>
      <tilted>0</tilted></_>
    <_>
      <rects>
        <_>
          15 10 7 4 -1.</_>
        <_>
          15 12 7 2 2.</_></rects>
      <tilted>0</tilted></_>
    <_>
      <rects>
        <_>
          15 18 4 6 -1.</_>
        <_>
          15 18 2 3 2.</_>
        <_>
          17 21 2 3 2.</_></rects>
      <tilted>0</tilted></_>
    <_>
      <rects>
        <_>
          15 18 8 2 -1.</_>
        <_>
          15 18 4 1 2.</_>
        <_>
          19 19 4 1 2.</_></rects>
      <tilted>0</tilted></_>
    <_>
      <rects>
        <_>
          16 1 2 22 -1.</_>
        <_>
          16 1 1 11 2.</_>
        <_>
          17 12 1 11 2.</_></rects>
      <tilted>0</tilted></_>
    <_>
      <rects>
        <_>
          16 2 1 9 -1.</_>
        <_>
          16 5 1 3 2.</_></rects>
      <tilted>0</tilted></_>
    <_>
      <rects>
        <_>
          16 5 8 19 -1.</_>
        <_>
          20 5 4 19 2.</_></rects>
      <tilted>0</tilted></_>
    <_>
      <rects>
        <_>
          16 6 8 18 -1.</_>
        <_>
          20 6 4 18 2.</_></rects>
      <tilted>0</tilted></_>
    <_>
      <rects>
        <_>
          16 9 3 4 -1.</_>
        <_>
          16 11 3 2 2.</_></rects>
      <tilted>0</tilted></_>
    <_>
      <rects>
        <_>
          16 9 6 9 -1.</_>
        <_>
          16 12 6 3 2.</_></rects>
      <tilted>0</tilted></_>
    <_>
      <rects>
        <_>
          16 18 6 6 -1.</_>
        <_>
          16 18 3 3 2.</_>
        <_>
          19 21 3 3 2.</_></rects>
      <tilted>0</tilted></_>
    <_>
      <rects>
        <_>
          16 19 6 5 -1.</_>
        <_>
          19 19 3 5 2.</_></rects>
      <tilted>0</tilted></_>
    <_>
      <rects>
        <_>
          17 3 6 13 -1.</_>
        <_>
          20 3 3 13 2.</_></rects>
      <tilted>0</tilted></_>
    <_>
      <rects>
        <_>
          17 4 6 20 -1.</_>
        <_>
          17 4 3 10 2.</_>
        <_>
          20 14 3 10 2.</_></rects>
      <tilted>0</tilted></_>
    <_>
      <rects>
        <_>
          17 20 6 1 -1.</_>
        <_>
          20 20 3 1 2.</_></rects>
      <tilted>0</tilted></_>
    <_>
      <rects>
        <_>
          18 4 4 2 -1.</_>
        <_>
          20 4 2 2 2.</_></rects>
      <tilted>0</tilted></_>
    <_>
      <rects>
        <_>
          18 8 6 2 -1.</_>
        <_>
          21 8 3 2 2.</_></rects>
      <tilted>0</tilted></_>
    <_>
      <rects>
        <_>
          19 4 4 19 -1.</_>
        <_>
          21 4 2 19 2.</_></rects>
      <tilted>0</tilted></_>
    <_>
      <rects>
        <_>
          19 6 4 15 -1.</_>
        <_>
          21 6 2 15 2.</_></rects>
      <tilted>0</tilted></_>
    <_>
      <rects>
        <_>
          19 11 2 8 -1.</_>
        <_>
          19 11 1 4 2.</_>
        <_>
          20 15 1 4 2.</_></rects>
      <tilted>0</tilted></_>
    <_>
      <rects>
        <_>
          20 1 4 12 -1.</_>
        <_>
          20 1 2 6 2.</_>
        <_>
          22 7 2 6 2.</_></rects>
      <tilted>0</tilted></_>
    <_>
      <rects>
        <_>
          20 4 4 20 -1.</_>
        <_>
          22 4 2 20 2.</_></rects>
      <tilted>0</tilted></_>
    <_>
      <rects>
        <_>
          20 5 4 15 -1.</_>
        <_>
          22 5 2 15 2.</_></rects>
      <tilted>0</tilted></_>
    <_>
      <rects>
        <_>
          21 0 2 1 -1.</_>
        <_>
          22 0 1 1 2.</_></rects>
      <tilted>0</tilted></_>
    <_>
      <rects>
        <_>
          21 6 1 18 -1.</_>
        <_>
          21 12 1 6 2.</_></rects>
      <tilted>0</tilted></_>
    <_>
      <rects>
        <_>
          21 20 3 4 -1.</_>
        <_>
          22 20 1 4 2.</_></rects>
      <tilted>0</tilted></_>
    <_>
      <rects>
        <_>
          21 22 3 1 -1.</_>
        <_>
          22 22 1 1 2.</_></rects>
      <tilted>0</tilted></_>
    <_>
      <rects>
        <_>
          22 0 2 2 -1.</_>
        <_>
          22 1 2 1 2.</_></rects>
      <tilted>0</tilted></_>
    <_>
      <rects>
        <_>
          23 2 1 2 -1.</_>
        <_>
          23 3 1 1 2.</_></rects>
      <tilted>0</tilted></_>
    <_>
      <rects>
        <_>
          23 4 1 2 -1.</_>
        <_>
          23 5 1 1 2.</_></rects>
      <tilted>0</tilted></_></features></cascade>
</opencv_storage>
