<?xml version="1.0"?>
<opencv_storage>
<stage1>
  <maxWeakCount>8</maxWeakCount>
  <stageThreshold>-1.2361398935317993e+00</stageThreshold>
  <weakClassifiers>
    <_>
      <internalNodes>
        0 -1 26228 4.5724976807832718e-02</internalNodes>
      <leafValues>
        -7.0089286565780640e-01 7.5000000000000000e-01</leafValues></_>
    <_>
      <internalNodes>
        0 -1 124964 -6.2009591609239578e-02</internalNodes>
      <leafValues>
        7.0591121912002563e-01 -4.6788111329078674e-01</leafValues></_>
    <_>
      <internalNodes>
        0 -1 86736 -2.1754670888185501e-02</internalNodes>
      <leafValues>
        -9.5259809494018555e-01 2.6723703742027283e-01</leafValues></_>
    <_>
      <internalNodes>
        0 -1 5214 6.4029484987258911e-02</internalNodes>
      <leafValues>
        -2.5834420323371887e-01 8.9194232225418091e-01</leafValues></_>
    <_>
      <internalNodes>
        0 -1 6004 -2.9157008975744247e-02</internalNodes>
      <leafValues>
        7.6797753572463989e-01 -3.1961053609848022e-01</leafValues></_>
    <_>
      <internalNodes>
        0 -1 67601 3.5668447613716125e-02</internalNodes>
      <leafValues>
        2.8802278637886047e-01 -9.0617436170578003e-01</leafValues></_>
    <_>
      <internalNodes>
        0 -1 56971 1.7278161831200123e-03</internalNodes>
      <leafValues>
        -5.9689640998840332e-01 3.2175710797309875e-01</leafValues></_>
    <_>
      <internalNodes>
        0 -1 21023 7.6708598062396049e-03</internalNodes>
      <leafValues>
        -3.5803765058517456e-01 5.5222541093826294e-01</leafValues></_></weakClassifiers></stage1>
</opencv_storage>
