<?xml version="1.0"?>
<opencv_storage>
<stage3>
  <maxWeakCount>12</maxWeakCount>
  <stageThreshold>-1.1167955398559570e+00</stageThreshold>
  <weakClassifiers>
    <_>
      <internalNodes>
        0 -1 122211 -4.4693380594253540e-02</internalNodes>
      <leafValues>
        6.9105690717697144e-01 -5.9748429059982300e-01</leafValues></_>
    <_>
      <internalNodes>
        0 -1 16706 1.3484665751457214e-01</internalNodes>
      <leafValues>
        -3.4580752253532410e-01 5.8162343502044678e-01</leafValues></_>
    <_>
      <internalNodes>
        0 -1 47016 8.9161442592740059e-03</internalNodes>
      <leafValues>
        -3.0987262725830078e-01 6.0148948431015015e-01</leafValues></_>
    <_>
      <internalNodes>
        0 -1 96342 4.1189929470419884e-03</internalNodes>
      <leafValues>
        -2.5159701704978943e-01 5.6205070018768311e-01</leafValues></_>
    <_>
      <internalNodes>
        0 -1 118255 -6.7796218208968639e-03</internalNodes>
      <leafValues>
        2.0608541369438171e-01 -7.2901362180709839e-01</leafValues></_>
    <_>
      <internalNodes>
        0 -1 133744 3.7892966065555811e-04</internalNodes>
      <leafValues>
        -3.9337664842605591e-01 4.0225985646247864e-01</leafValues></_>
    <_>
      <internalNodes>
        0 -1 80586 -3.2927021384239197e-03</internalNodes>
      <leafValues>
        4.7973078489303589e-01 -2.7454930543899536e-01</leafValues></_>
    <_>
      <internalNodes>
        0 -1 50260 1.1243414133787155e-02</internalNodes>
      <leafValues>
        -1.5917569398880005e-01 7.5029104948043823e-01</leafValues></_>
    <_>
      <internalNodes>
        0 -1 3325 -7.0097789168357849e-02</internalNodes>
      <leafValues>
        8.7335991859436035e-01 -1.4841276407241821e-01</leafValues></_>
    <_>
      <internalNodes>
        0 -1 145833 -1.0840204358100891e-01</internalNodes>
      <leafValues>
        6.9252526760101318e-01 -2.1305932104587555e-01</leafValues></_>
    <_>
      <internalNodes>
        0 -1 84960 -4.5516882091760635e-03</internalNodes>
      <leafValues>
        4.3599128723144531e-01 -3.5209929943084717e-01</leafValues></_>
    <_>
      <internalNodes>
        0 -1 114200 -7.1062799543142319e-03</internalNodes>
      <leafValues>
        1.8018285930156708e-01 -7.7089679241180420e-01</leafValues></_></weakClassifiers></stage3>
</opencv_storage>
