<?xml version="1.0"?>
<opencv_storage>
<stage4>
  <maxWeakCount>12</maxWeakCount>
  <stageThreshold>-1.1149636507034302e+00</stageThreshold>
  <weakClassifiers>
    <_>
      <internalNodes>
        0 -1 114807 -7.1968644857406616e-02</internalNodes>
      <leafValues>
        4.9640288949012756e-01 -5.8351409435272217e-01</leafValues></_>
    <_>
      <internalNodes>
        0 -1 142588 4.2349994182586670e-03</internalNodes>
      <leafValues>
        -4.1898334026336670e-01 3.3147409558296204e-01</leafValues></_>
    <_>
      <internalNodes>
        0 -1 59546 1.0076568461954594e-02</internalNodes>
      <leafValues>
        -2.9525458812713623e-01 4.6672856807708740e-01</leafValues></_>
    <_>
      <internalNodes>
        0 -1 69082 -1.0057062609121203e-03</internalNodes>
      <leafValues>
        2.1847581863403320e-01 -5.3094649314880371e-01</leafValues></_>
    <_>
      <internalNodes>
        0 -1 130173 7.8108569141477346e-04</internalNodes>
      <leafValues>
        1.6754508018493652e-01 -8.4919387102127075e-01</leafValues></_>
    <_>
      <internalNodes>
        0 -1 48805 -1.9144341349601746e-02</internalNodes>
      <leafValues>
        6.8920481204986572e-01 -2.1990935504436493e-01</leafValues></_>
    <_>
      <internalNodes>
        0 -1 26301 -5.6594643741846085e-02</internalNodes>
      <leafValues>
        -1.4181821048259735e-01 6.7834049463272095e-01</leafValues></_>
    <_>
      <internalNodes>
        0 -1 50761 -1.2401126325130463e-02</internalNodes>
      <leafValues>
        6.5154165029525757e-01 -1.7635320127010345e-01</leafValues></_>
    <_>
      <internalNodes>
        0 -1 144438 8.4687694907188416e-03</internalNodes>
      <leafValues>
        1.3596569001674652e-01 -8.6839032173156738e-01</leafValues></_>
    <_>
      <internalNodes>
        0 -1 62022 6.9981306791305542e-02</internalNodes>
      <leafValues>
        -2.9655873775482178e-01 4.0319395065307617e-01</leafValues></_>
    <_>
      <internalNodes>
        0 -1 92986 -2.3021183907985687e-02</internalNodes>
      <leafValues>
        6.9714772701263428e-01 -2.0318257808685303e-01</leafValues></_>
    <_>
      <internalNodes>
        0 -1 149560 -4.2699299752712250e-02</internalNodes>
      <leafValues>
        8.1230664253234863e-01 -1.2153475731611252e-01</leafValues></_></weakClassifiers></stage4>
</opencv_storage>
